digraph Tree {
node [shape=box, style="rounded", color="black", fontname="helvetica"] ;
edge [fontname="helvetica"] ;
0 [label="temp_1 <= 59.5\nsquared_error = 134.5\nsamples = 171\nvalue = 62.4"] ;
1 [label="average <= 46.9\nsquared_error = 48.6\nsamples = 68\nvalue = 51.2"] ;
0 -> 1 [labeldistance=2.5, labelangle=45, headlabel="True"] ;
2 [label="temp_1 <= 47.0\nsquared_error = 25.0\nsamples = 19\nvalue = 42.7"] ;
1 -> 2 ;
3 [label="squared_error = 4.8\nsamples = 14\nvalue = 40.6"] ;
2 -> 3 ;
4 [label="squared_error = 38.7\nsamples = 5\nvalue = 47.6"] ;
2 -> 4 ;
5 [label="temp_1 <= 56.5\nsquared_error = 20.9\nsamples = 49\nvalue = 54.4"] ;
1 -> 5 ;
6 [label="squared_error = 9.6\nsamples = 34\nvalue = 52.3"] ;
5 -> 6 ;
7 [label="squared_error = 15.9\nsamples = 15\nvalue = 58.9"] ;
5 -> 7 ;
8 [label="temp_1 <= 67.5\nsquared_error = 60.5\nsamples = 103\nvalue = 69.5"] ;
0 -> 8 [labeldistance=2.5, labelangle=-45, headlabel="False"] ;
9 [label="forecast_under <= 61.5\nsquared_error = 19.8\nsamples = 40\nvalue = 63.5"] ;
8 -> 9 ;
10 [label="squared_error = 14.9\nsamples = 18\nvalue = 61.6"] ;
9 -> 10 ;
11 [label="squared_error = 16.7\nsamples = 22\nvalue = 65.7"] ;
9 -> 11 ;
12 [label="temp_1 <= 76.5\nsquared_error = 42.6\nsamples = 63\nvalue = 74.1"] ;
8 -> 12 ;
13 [label="squared_error = 25.9\nsamples = 39\nvalue = 72.3"] ;
12 -> 13 ;
14 [label="squared_error = 55.2\nsamples = 24\nvalue = 78.6"] ;
12 -> 14 ;
}